Language model created by QuickLM on Thu Mar  9 01:30:26 EST 2017
Copyright (c) 1996-2010 Carnegie Mellon University and Alexander I. Rudnicky

The model is in standard ARPA format, designed by Doug Paul while he was at MITRE.

The code that was used to produce this language model is available in Open Source.
Please visit http://www.speech.cs.cmu.edu/tools/ for more information

The (fixed) discount mass is 0.5. The backoffs are computed using the ratio method.
This model based on a corpus of 64 sentences and 66 words

\data\
ngram 1=66
ngram 2=128
ngram 3=64

\1-grams:
-0.7782 </s> -0.3010
-0.7782 <s> -0.2218
-2.5843 ABIGAIL -0.2218
-2.5843 ADALYN -0.2218
-2.5843 AIDEN -0.2218
-2.5843 ALEXANDER -0.2218
-2.5843 AMELIA -0.2218
-2.5843 ARIA -0.2218
-2.5843 ATRAS -0.2218
-2.5843 AUBREY -0.2218
-2.5843 AVA -0.2218
-2.5843 AVERY -0.2218
-2.5843 BENJAMIN -0.2218
-2.5843 BORRAR -0.2218
-2.5843 BUSCAR -0.2218
-2.5843 CADEN -0.2218
-2.5843 CALEB -0.2218
-2.5843 CARTER -0.2218
-2.5843 CHARLOTTE -0.2218
-2.5843 CHLOE -0.2218
-2.5843 COLGAR -0.2218
-2.5843 CONTACTO -0.2218
-2.5843 CONTACTOS -0.2218
-2.5843 DANIEL -0.2218
-2.5843 ELIJAH -0.2218
-2.5843 EMILY -0.2218
-2.5843 EMMA -0.2218
-2.5843 ETHAN -0.2218
-2.5843 EVELYN -0.2218
-2.5843 GRAYSON -0.2218
-2.5843 HARPER -0.2218
-2.5843 ISABELLA -0.2218
-2.5843 JACK -0.2218
-2.5843 JACKSON -0.2218
-2.5843 JACOB -0.2218
-2.5843 JAMES -0.2218
-2.5843 JAYDEN -0.2218
-2.5843 KAYLEE -0.2218
-2.5843 LAYLA -0.2218
-2.5843 LIAM -0.2218
-2.5843 LILY -0.2218
-2.5843 LISTO -0.2218
-2.5843 LLAMAR -0.2218
-2.5843 LOGAN -0.2218
-2.5843 LUCAS -0.2218
-2.5843 LUKE -0.2218
-2.5843 MADELYN -0.2218
-2.5843 MADISON -0.2218
-2.5843 MANDAR -0.2218
-2.5843 MASON -0.2218
-2.5843 MENSAJE -0.2218
-2.5843 MIA -0.2218
-2.5843 MICHAEL -0.2218
-2.5843 MODIFICAR -0.2218
-2.5843 NOAH -0.2218
-2.5843 NUEVO -0.2218
-2.5843 OLIVER -0.2218
-2.5843 OLIVIA -0.2218
-2.5843 PASSWORD -0.2218
-2.5843 RILEY -0.2218
-2.5843 RYAN -0.2218
-2.5843 SALIR -0.2218
-2.5843 SOPHIA -0.2218
-2.5843 USERNAME -0.2218
-2.5843 VIDEOLLAMADA -0.2218
-2.5843 WILLIAM -0.2218
-2.5843 ZOE -0.2218

\2-grams:
-2.1072 <s> ABIGAIL 0.0000
-2.1072 <s> ADALYN 0.0000
-2.1072 <s> AIDEN 0.0000
-2.1072 <s> ALEXANDER 0.0000
-2.1072 <s> AMELIA 0.0000
-2.1072 <s> ARIA 0.0000
-2.1072 <s> ATRAS 0.0000
-2.1072 <s> AUBREY 0.0000
-2.1072 <s> AVA 0.0000
-2.1072 <s> AVERY 0.0000
-2.1072 <s> BENJAMIN 0.0000
-2.1072 <s> BORRAR 0.0000
-2.1072 <s> BUSCAR 0.0000
-2.1072 <s> CADEN 0.0000
-2.1072 <s> CALEB 0.0000
-2.1072 <s> CARTER 0.0000
-2.1072 <s> CHARLOTTE 0.0000
-2.1072 <s> CHLOE 0.0000
-2.1072 <s> COLGAR 0.0000
-2.1072 <s> CONTACTO 0.0000
-2.1072 <s> CONTACTOS 0.0000
-2.1072 <s> DANIEL 0.0000
-2.1072 <s> ELIJAH 0.0000
-2.1072 <s> EMILY 0.0000
-2.1072 <s> EMMA 0.0000
-2.1072 <s> ETHAN 0.0000
-2.1072 <s> EVELYN 0.0000
-2.1072 <s> GRAYSON 0.0000
-2.1072 <s> HARPER 0.0000
-2.1072 <s> ISABELLA 0.0000
-2.1072 <s> JACK 0.0000
-2.1072 <s> JACKSON 0.0000
-2.1072 <s> JACOB 0.0000
-2.1072 <s> JAMES 0.0000
-2.1072 <s> JAYDEN 0.0000
-2.1072 <s> KAYLEE 0.0000
-2.1072 <s> LAYLA 0.0000
-2.1072 <s> LIAM 0.0000
-2.1072 <s> LILY 0.0000
-2.1072 <s> LISTO 0.0000
-2.1072 <s> LLAMAR 0.0000
-2.1072 <s> LOGAN 0.0000
-2.1072 <s> LUCAS 0.0000
-2.1072 <s> LUKE 0.0000
-2.1072 <s> MADELYN 0.0000
-2.1072 <s> MADISON 0.0000
-2.1072 <s> MANDAR 0.0000
-2.1072 <s> MASON 0.0000
-2.1072 <s> MENSAJE 0.0000
-2.1072 <s> MIA 0.0000
-2.1072 <s> MICHAEL 0.0000
-2.1072 <s> MODIFICAR 0.0000
-2.1072 <s> NOAH 0.0000
-2.1072 <s> NUEVO 0.0000
-2.1072 <s> OLIVER 0.0000
-2.1072 <s> OLIVIA 0.0000
-2.1072 <s> PASSWORD 0.0000
-2.1072 <s> RILEY 0.0000
-2.1072 <s> RYAN 0.0000
-2.1072 <s> SALIR 0.0000
-2.1072 <s> SOPHIA 0.0000
-2.1072 <s> USERNAME 0.0000
-2.1072 <s> VIDEOLLAMADA 0.0000
-2.1072 <s> WILLIAM 0.0000
-2.1072 <s> ZOE 0.0000
-0.3010 ABIGAIL </s> -0.3010
-0.3010 ADALYN </s> -0.3010
-0.3010 AIDEN </s> -0.3010
-0.3010 ALEXANDER </s> -0.3010
-0.3010 AMELIA </s> -0.3010
-0.3010 ARIA </s> -0.3010
-0.3010 ATRAS </s> -0.3010
-0.3010 AUBREY </s> -0.3010
-0.3010 AVA </s> -0.3010
-0.3010 AVERY </s> -0.3010
-0.3010 BENJAMIN </s> -0.3010
-0.3010 BORRAR </s> -0.3010
-0.3010 BUSCAR </s> -0.3010
-0.3010 CADEN </s> -0.3010
-0.3010 CALEB </s> -0.3010
-0.3010 CARTER </s> -0.3010
-0.3010 CHARLOTTE </s> -0.3010
-0.3010 CHLOE </s> -0.3010
-0.3010 COLGAR </s> -0.3010
-0.3010 CONTACTO </s> -0.3010
-0.3010 CONTACTOS </s> -0.3010
-0.3010 DANIEL </s> -0.3010
-0.3010 ELIJAH </s> -0.3010
-0.3010 EMILY </s> -0.3010
-0.3010 EMMA </s> -0.3010
-0.3010 ETHAN </s> -0.3010
-0.3010 EVELYN </s> -0.3010
-0.3010 GRAYSON </s> -0.3010
-0.3010 HARPER </s> -0.3010
-0.3010 ISABELLA </s> -0.3010
-0.3010 JACK </s> -0.3010
-0.3010 JACKSON </s> -0.3010
-0.3010 JACOB </s> -0.3010
-0.3010 JAMES </s> -0.3010
-0.3010 JAYDEN </s> -0.3010
-0.3010 KAYLEE </s> -0.3010
-0.3010 LAYLA </s> -0.3010
-0.3010 LIAM </s> -0.3010
-0.3010 LILY </s> -0.3010
-0.3010 LISTO </s> -0.3010
-0.3010 LLAMAR </s> -0.3010
-0.3010 LOGAN </s> -0.3010
-0.3010 LUCAS </s> -0.3010
-0.3010 LUKE </s> -0.3010
-0.3010 MADELYN </s> -0.3010
-0.3010 MADISON </s> -0.3010
-0.3010 MANDAR </s> -0.3010
-0.3010 MASON </s> -0.3010
-0.3010 MENSAJE </s> -0.3010
-0.3010 MIA </s> -0.3010
-0.3010 MICHAEL </s> -0.3010
-0.3010 MODIFICAR </s> -0.3010
-0.3010 NOAH </s> -0.3010
-0.3010 NUEVO </s> -0.3010
-0.3010 OLIVER </s> -0.3010
-0.3010 OLIVIA </s> -0.3010
-0.3010 PASSWORD </s> -0.3010
-0.3010 RILEY </s> -0.3010
-0.3010 RYAN </s> -0.3010
-0.3010 SALIR </s> -0.3010
-0.3010 SOPHIA </s> -0.3010
-0.3010 USERNAME </s> -0.3010
-0.3010 VIDEOLLAMADA </s> -0.3010
-0.3010 WILLIAM </s> -0.3010
-0.3010 ZOE </s> -0.3010

\3-grams:
-0.3010 <s> ABIGAIL </s>
-0.3010 <s> ADALYN </s>
-0.3010 <s> AIDEN </s>
-0.3010 <s> ALEXANDER </s>
-0.3010 <s> AMELIA </s>
-0.3010 <s> ARIA </s>
-0.3010 <s> ATRAS </s>
-0.3010 <s> AUBREY </s>
-0.3010 <s> AVA </s>
-0.3010 <s> AVERY </s>
-0.3010 <s> BENJAMIN </s>
-0.3010 <s> BORRAR </s>
-0.3010 <s> BUSCAR </s>
-0.3010 <s> CADEN </s>
-0.3010 <s> CALEB </s>
-0.3010 <s> CARTER </s>
-0.3010 <s> CHARLOTTE </s>
-0.3010 <s> CHLOE </s>
-0.3010 <s> COLGAR </s>
-0.3010 <s> CONTACTO </s>
-0.3010 <s> CONTACTOS </s>
-0.3010 <s> DANIEL </s>
-0.3010 <s> ELIJAH </s>
-0.3010 <s> EMILY </s>
-0.3010 <s> EMMA </s>
-0.3010 <s> ETHAN </s>
-0.3010 <s> EVELYN </s>
-0.3010 <s> GRAYSON </s>
-0.3010 <s> HARPER </s>
-0.3010 <s> ISABELLA </s>
-0.3010 <s> JACK </s>
-0.3010 <s> JACKSON </s>
-0.3010 <s> JACOB </s>
-0.3010 <s> JAMES </s>
-0.3010 <s> JAYDEN </s>
-0.3010 <s> KAYLEE </s>
-0.3010 <s> LAYLA </s>
-0.3010 <s> LIAM </s>
-0.3010 <s> LILY </s>
-0.3010 <s> LISTO </s>
-0.3010 <s> LLAMAR </s>
-0.3010 <s> LOGAN </s>
-0.3010 <s> LUCAS </s>
-0.3010 <s> LUKE </s>
-0.3010 <s> MADELYN </s>
-0.3010 <s> MADISON </s>
-0.3010 <s> MANDAR </s>
-0.3010 <s> MASON </s>
-0.3010 <s> MENSAJE </s>
-0.3010 <s> MIA </s>
-0.3010 <s> MICHAEL </s>
-0.3010 <s> MODIFICAR </s>
-0.3010 <s> NOAH </s>
-0.3010 <s> NUEVO </s>
-0.3010 <s> OLIVER </s>
-0.3010 <s> OLIVIA </s>
-0.3010 <s> PASSWORD </s>
-0.3010 <s> RILEY </s>
-0.3010 <s> RYAN </s>
-0.3010 <s> SALIR </s>
-0.3010 <s> SOPHIA </s>
-0.3010 <s> USERNAME </s>
-0.3010 <s> VIDEOLLAMADA </s>
-0.3010 <s> WILLIAM </s>
-0.3010 <s> ZOE </s>

\end\
