Language model created by QuickLM on Thu Mar 23 09:45:24 EDT 2017
Copyright (c) 1996-2010 Carnegie Mellon University and Alexander I. Rudnicky

The model is in standard ARPA format, designed by Doug Paul while he was at MITRE.

The code that was used to produce this language model is available in Open Source.
Please visit http://www.speech.cs.cmu.edu/tools/ for more information

The (fixed) discount mass is 0.5. The backoffs are computed using the ratio method.
This model based on a corpus of 78 sentences and 81 words

\data\
ngram 1=81
ngram 2=157
ngram 3=80

\1-grams:
-0.7818 </s> -0.3010
-0.7818 <s> -0.2215
-2.6739 ABIGAIL -0.2226
-2.6739 ADALYN -0.2226
-2.6739 AIDEN -0.2226
-2.6739 ALEXANDER -0.2226
-2.6739 AMELIA -0.2226
-2.6739 ARIA -0.2226
-2.6739 AUBREY -0.2226
-2.6739 AVA -0.2226
-2.6739 AVERY -0.2226
-2.6739 BACK -0.2226
-2.6739 BENJAMIN -0.2226
-2.6739 CADEN -0.2226
-2.6739 CALEB -0.2226
-2.3729 CALL -0.2226
-2.6739 CARTER -0.2226
-2.6739 CHARLOTTE -0.2226
-2.6739 CHLOE -0.2226
-2.6739 CONTACTS -0.2226
-2.6739 DANIEL -0.2226
-2.6739 DELETE -0.2226
-2.6739 EIGHT -0.2226
-2.6739 ELIJAH -0.2226
-2.6739 EMILY -0.2226
-2.6739 EMMA -0.2226
-2.6739 ETHAN -0.2226
-2.6739 EVELYN -0.2226
-2.6739 EXIT -0.2226
-2.6739 FIVE -0.2226
-2.6739 FOUR -0.2226
-2.6739 GRAYSON -0.2226
-2.6739 HANG -0.3001
-2.6739 HARPER -0.2226
-2.6739 HISTORY -0.2226
-2.6739 IMAGE -0.2226
-2.6739 ISABELLA -0.2226
-2.6739 JACK -0.2226
-2.6739 JACKSON -0.2226
-2.6739 JACOB -0.2226
-2.6739 JAMES -0.2226
-2.6739 JAYDEN -0.2226
-2.6739 KAYLEE -0.2226
-2.6739 LAYLA -0.2226
-2.6739 LIAM -0.2226
-2.6739 LILY -0.2226
-2.6739 LOGAN -0.2226
-2.6739 LUCAS -0.2226
-2.6739 LUKE -0.2226
-2.6739 MADELYN -0.2226
-2.6739 MADISON -0.2226
-2.6739 MAIL -0.2226
-2.6739 MASON -0.2226
-2.6739 MESSAGE -0.2226
-2.6739 MIA -0.2226
-2.6739 MICHAEL -0.2226
-2.6739 MODIFY -0.2226
-2.6739 NAME -0.2226
-2.6739 NEW -0.2226
-2.6739 NINE -0.2226
-2.6739 NOAH -0.2226
-2.6739 NUMBER -0.2226
-2.6739 OK -0.2226
-2.6739 OLIVER -0.2226
-2.6739 OLIVIA -0.2226
-2.6739 ONE -0.2226
-2.6739 PASSWORD -0.2226
-2.6739 RILEY -0.2226
-2.6739 RYAN -0.2226
-2.6739 SEND -0.2226
-2.6739 SEVEN -0.2226
-2.6739 SIX -0.2226
-2.6739 SOPHIA -0.2226
-2.6739 THREE -0.2226
-2.6739 TWO -0.2226
-2.6739 UP -0.2226
-2.6739 USERNAME -0.2226
-2.6739 VIDEO -0.2992
-2.6739 WILLIAM -0.2226
-2.6739 ZERO -0.2226
-2.6739 ZOE -0.2226

\2-grams:
-2.1931 <s> ABIGAIL 0.0000
-2.1931 <s> ADALYN 0.0000
-2.1931 <s> AIDEN 0.0000
-2.1931 <s> ALEXANDER 0.0000
-2.1931 <s> AMELIA 0.0000
-2.1931 <s> ARIA 0.0000
-2.1931 <s> AUBREY 0.0000
-2.1931 <s> AVA 0.0000
-2.1931 <s> AVERY 0.0000
-2.1931 <s> BACK 0.0000
-2.1931 <s> BENJAMIN 0.0000
-2.1931 <s> CADEN 0.0000
-2.1931 <s> CALEB 0.0000
-2.1931 <s> CALL 0.0000
-2.1931 <s> CARTER 0.0000
-2.1931 <s> CHARLOTTE 0.0000
-2.1931 <s> CHLOE 0.0000
-2.1931 <s> CONTACTS 0.0000
-2.1931 <s> DANIEL 0.0000
-2.1931 <s> DELETE 0.0000
-2.1931 <s> EIGHT 0.0000
-2.1931 <s> ELIJAH 0.0000
-2.1931 <s> EMILY 0.0000
-2.1931 <s> EMMA 0.0000
-2.1931 <s> ETHAN 0.0000
-2.1931 <s> EVELYN 0.0000
-2.1931 <s> EXIT 0.0000
-2.1931 <s> FIVE 0.0000
-2.1931 <s> FOUR 0.0000
-2.1931 <s> GRAYSON 0.0000
-2.1931 <s> HANG 0.0000
-2.1931 <s> HARPER 0.0000
-2.1931 <s> HISTORY 0.0000
-2.1931 <s> IMAGE 0.0000
-2.1931 <s> ISABELLA 0.0000
-2.1931 <s> JACK 0.0000
-2.1931 <s> JACKSON 0.0000
-2.1931 <s> JACOB 0.0000
-2.1931 <s> JAMES 0.0000
-2.1931 <s> JAYDEN 0.0000
-2.1931 <s> KAYLEE 0.0000
-2.1931 <s> LAYLA 0.0000
-2.1931 <s> LIAM 0.0000
-2.1931 <s> LILY 0.0000
-2.1931 <s> LOGAN 0.0000
-2.1931 <s> LUCAS 0.0000
-2.1931 <s> LUKE 0.0000
-2.1931 <s> MADELYN 0.0000
-2.1931 <s> MADISON 0.0000
-2.1931 <s> MAIL 0.0000
-2.1931 <s> MASON 0.0000
-2.1931 <s> MESSAGE 0.0000
-2.1931 <s> MIA 0.0000
-2.1931 <s> MICHAEL 0.0000
-2.1931 <s> MODIFY 0.0000
-2.1931 <s> NAME 0.0000
-2.1931 <s> NEW 0.0000
-2.1931 <s> NINE 0.0000
-2.1931 <s> NOAH 0.0000
-2.1931 <s> NUMBER 0.0000
-2.1931 <s> OK 0.0000
-2.1931 <s> OLIVER 0.0000
-2.1931 <s> OLIVIA 0.0000
-2.1931 <s> ONE 0.0000
-2.1931 <s> PASSWORD 0.0000
-2.1931 <s> RILEY 0.0000
-2.1931 <s> RYAN 0.0000
-2.1931 <s> SEND 0.0000
-2.1931 <s> SEVEN 0.0000
-2.1931 <s> SIX 0.0000
-2.1931 <s> SOPHIA 0.0000
-2.1931 <s> THREE 0.0000
-2.1931 <s> TWO 0.0000
-2.1931 <s> USERNAME 0.0000
-2.1931 <s> VIDEO 0.0000
-2.1931 <s> WILLIAM 0.0000
-2.1931 <s> ZERO 0.0000
-2.1931 <s> ZOE 0.0000
-0.3010 ABIGAIL </s> -0.3010
-0.3010 ADALYN </s> -0.3010
-0.3010 AIDEN </s> -0.3010
-0.3010 ALEXANDER </s> -0.3010
-0.3010 AMELIA </s> -0.3010
-0.3010 ARIA </s> -0.3010
-0.3010 AUBREY </s> -0.3010
-0.3010 AVA </s> -0.3010
-0.3010 AVERY </s> -0.3010
-0.3010 BACK </s> -0.3010
-0.3010 BENJAMIN </s> -0.3010
-0.3010 CADEN </s> -0.3010
-0.3010 CALEB </s> -0.3010
-0.3010 CALL </s> -0.3010
-0.3010 CARTER </s> -0.3010
-0.3010 CHARLOTTE </s> -0.3010
-0.3010 CHLOE </s> -0.3010
-0.3010 CONTACTS </s> -0.3010
-0.3010 DANIEL </s> -0.3010
-0.3010 DELETE </s> -0.3010
-0.3010 EIGHT </s> -0.3010
-0.3010 ELIJAH </s> -0.3010
-0.3010 EMILY </s> -0.3010
-0.3010 EMMA </s> -0.3010
-0.3010 ETHAN </s> -0.3010
-0.3010 EVELYN </s> -0.3010
-0.3010 EXIT </s> -0.3010
-0.3010 FIVE </s> -0.3010
-0.3010 FOUR </s> -0.3010
-0.3010 GRAYSON </s> -0.3010
-0.3010 HANG UP 0.0000
-0.3010 HARPER </s> -0.3010
-0.3010 HISTORY </s> -0.3010
-0.3010 IMAGE </s> -0.3010
-0.3010 ISABELLA </s> -0.3010
-0.3010 JACK </s> -0.3010
-0.3010 JACKSON </s> -0.3010
-0.3010 JACOB </s> -0.3010
-0.3010 JAMES </s> -0.3010
-0.3010 JAYDEN </s> -0.3010
-0.3010 KAYLEE </s> -0.3010
-0.3010 LAYLA </s> -0.3010
-0.3010 LIAM </s> -0.3010
-0.3010 LILY </s> -0.3010
-0.3010 LOGAN </s> -0.3010
-0.3010 LUCAS </s> -0.3010
-0.3010 LUKE </s> -0.3010
-0.3010 MADELYN </s> -0.3010
-0.3010 MADISON </s> -0.3010
-0.3010 MAIL </s> -0.3010
-0.3010 MASON </s> -0.3010
-0.3010 MESSAGE </s> -0.3010
-0.3010 MIA </s> -0.3010
-0.3010 MICHAEL </s> -0.3010
-0.3010 MODIFY </s> -0.3010
-0.3010 NAME </s> -0.3010
-0.3010 NEW </s> -0.3010
-0.3010 NINE </s> -0.3010
-0.3010 NOAH </s> -0.3010
-0.3010 NUMBER </s> -0.3010
-0.3010 OK </s> -0.3010
-0.3010 OLIVER </s> -0.3010
-0.3010 OLIVIA </s> -0.3010
-0.3010 ONE </s> -0.3010
-0.3010 PASSWORD </s> -0.3010
-0.3010 RILEY </s> -0.3010
-0.3010 RYAN </s> -0.3010
-0.3010 SEND </s> -0.3010
-0.3010 SEVEN </s> -0.3010
-0.3010 SIX </s> -0.3010
-0.3010 SOPHIA </s> -0.3010
-0.3010 THREE </s> -0.3010
-0.3010 TWO </s> -0.3010
-0.3010 UP </s> -0.3010
-0.3010 USERNAME </s> -0.3010
-0.3010 VIDEO CALL 0.0000
-0.3010 WILLIAM </s> -0.3010
-0.3010 ZERO </s> -0.3010
-0.3010 ZOE </s> -0.3010

\3-grams:
-0.3010 <s> ABIGAIL </s>
-0.3010 <s> ADALYN </s>
-0.3010 <s> AIDEN </s>
-0.3010 <s> ALEXANDER </s>
-0.3010 <s> AMELIA </s>
-0.3010 <s> ARIA </s>
-0.3010 <s> AUBREY </s>
-0.3010 <s> AVA </s>
-0.3010 <s> AVERY </s>
-0.3010 <s> BACK </s>
-0.3010 <s> BENJAMIN </s>
-0.3010 <s> CADEN </s>
-0.3010 <s> CALEB </s>
-0.3010 <s> CALL </s>
-0.3010 <s> CARTER </s>
-0.3010 <s> CHARLOTTE </s>
-0.3010 <s> CHLOE </s>
-0.3010 <s> CONTACTS </s>
-0.3010 <s> DANIEL </s>
-0.3010 <s> DELETE </s>
-0.3010 <s> EIGHT </s>
-0.3010 <s> ELIJAH </s>
-0.3010 <s> EMILY </s>
-0.3010 <s> EMMA </s>
-0.3010 <s> ETHAN </s>
-0.3010 <s> EVELYN </s>
-0.3010 <s> EXIT </s>
-0.3010 <s> FIVE </s>
-0.3010 <s> FOUR </s>
-0.3010 <s> GRAYSON </s>
-0.3010 <s> HANG UP
-0.3010 <s> HARPER </s>
-0.3010 <s> HISTORY </s>
-0.3010 <s> IMAGE </s>
-0.3010 <s> ISABELLA </s>
-0.3010 <s> JACK </s>
-0.3010 <s> JACKSON </s>
-0.3010 <s> JACOB </s>
-0.3010 <s> JAMES </s>
-0.3010 <s> JAYDEN </s>
-0.3010 <s> KAYLEE </s>
-0.3010 <s> LAYLA </s>
-0.3010 <s> LIAM </s>
-0.3010 <s> LILY </s>
-0.3010 <s> LOGAN </s>
-0.3010 <s> LUCAS </s>
-0.3010 <s> LUKE </s>
-0.3010 <s> MADELYN </s>
-0.3010 <s> MADISON </s>
-0.3010 <s> MAIL </s>
-0.3010 <s> MASON </s>
-0.3010 <s> MESSAGE </s>
-0.3010 <s> MIA </s>
-0.3010 <s> MICHAEL </s>
-0.3010 <s> MODIFY </s>
-0.3010 <s> NAME </s>
-0.3010 <s> NEW </s>
-0.3010 <s> NINE </s>
-0.3010 <s> NOAH </s>
-0.3010 <s> NUMBER </s>
-0.3010 <s> OK </s>
-0.3010 <s> OLIVER </s>
-0.3010 <s> OLIVIA </s>
-0.3010 <s> ONE </s>
-0.3010 <s> PASSWORD </s>
-0.3010 <s> RILEY </s>
-0.3010 <s> RYAN </s>
-0.3010 <s> SEND </s>
-0.3010 <s> SEVEN </s>
-0.3010 <s> SIX </s>
-0.3010 <s> SOPHIA </s>
-0.3010 <s> THREE </s>
-0.3010 <s> TWO </s>
-0.3010 <s> USERNAME </s>
-0.3010 <s> VIDEO CALL
-0.3010 <s> WILLIAM </s>
-0.3010 <s> ZERO </s>
-0.3010 <s> ZOE </s>
-0.3010 HANG UP </s>
-0.3010 VIDEO CALL </s>

\end\
